digraph Tree {
node [shape=box] ;
0 [label="YearsAtCompany <= 1.5\ngini = 0.27\nsamples = 4410\nvalue = [3699, 711]"] ;
1 [label="Age <= 33.5\ngini = 0.454\nsamples = 645\nvalue = [420, 225]"] ;
0 -> 1 [labeldistance=2.5, labelangle=45, headlabel="True"] ;
2 [label="DistanceFromHome <= 112610.0\ngini = 0.497\nsamples = 306\nvalue = [141, 165]"] ;
1 -> 2 ;
3 [label="Age <= 22.5\ngini = 0.486\nsamples = 267\nvalue = [111, 156]"] ;
2 -> 3 ;
4 [label="DistanceFromHome <= 23140.0\ngini = 0.33\nsamples = 72\nvalue = [15, 57]"] ;
3 -> 4 ;
5 [label="gini = 0.0\nsamples = 3\nvalue = [3, 0]"] ;
4 -> 5 ;
6 [label="Age <= 18.5\ngini = 0.287\nsamples = 69\nvalue = [12, 57]"] ;
4 -> 6 ;
7 [label="PercentSalaryHike <= 4.0\ngini = 0.49\nsamples = 21\nvalue = [9, 12]"] ;
6 -> 7 ;
8 [label="MonthlyIncome <= 20.0\ngini = 0.32\nsamples = 15\nvalue = [3, 12]"] ;
7 -> 8 ;
9 [label="gini = 0.0\nsamples = 12\nvalue = [0, 12]"] ;
8 -> 9 ;
10 [label="gini = 0.0\nsamples = 3\nvalue = [3, 0]"] ;
8 -> 10 ;
11 [label="gini = 0.0\nsamples = 6\nvalue = [6, 0]"] ;
7 -> 11 ;
12 [label="DistanceFromHome <= 106255.0\ngini = 0.117\nsamples = 48\nvalue = [3, 45]"] ;
6 -> 12 ;
13 [label="gini = 0.0\nsamples = 45\nvalue = [0, 45]"] ;
12 -> 13 ;
14 [label="gini = 0.0\nsamples = 3\nvalue = [3, 0]"] ;
12 -> 14 ;
15 [label="DistanceFromHome <= 72530.0\ngini = 0.5\nsamples = 195\nvalue = [96, 99]"] ;
3 -> 15 ;
16 [label="PercentSalaryHike <= 2.5\ngini = 0.499\nsamples = 171\nvalue = [90, 81]"] ;
15 -> 16 ;
17 [label="MonthlyIncome <= 23.5\ngini = 0.444\nsamples = 45\nvalue = [15, 30]"] ;
16 -> 17 ;
18 [label="Age <= 27.5\ngini = 0.408\nsamples = 42\nvalue = [12, 30]"] ;
17 -> 18 ;
19 [label="Age <= 26.5\ngini = 0.5\nsamples = 24\nvalue = [12, 12]"] ;
18 -> 19 ;
20 [label="DistanceFromHome <= 21520.0\ngini = 0.32\nsamples = 15\nvalue = [3, 12]"] ;
19 -> 20 ;
21 [label="gini = 0.0\nsamples = 3\nvalue = [3, 0]"] ;
20 -> 21 ;
22 [label="gini = 0.0\nsamples = 12\nvalue = [0, 12]"] ;
20 -> 22 ;
23 [label="gini = 0.0\nsamples = 9\nvalue = [9, 0]"] ;
19 -> 23 ;
24 [label="gini = 0.0\nsamples = 18\nvalue = [0, 18]"] ;
18 -> 24 ;
25 [label="gini = 0.0\nsamples = 3\nvalue = [3, 0]"] ;
17 -> 25 ;
26 [label="DistanceFromHome <= 31000.0\ngini = 0.482\nsamples = 126\nvalue = [75, 51]"] ;
16 -> 26 ;
27 [label="DistanceFromHome <= 27080.0\ngini = 0.49\nsamples = 42\nvalue = [18, 24]"] ;
26 -> 27 ;
28 [label="PercentSalaryHike <= 6.5\ngini = 0.444\nsamples = 27\nvalue = [18, 9]"] ;
27 -> 28 ;
29 [label="gini = 0.0\nsamples = 9\nvalue = [0, 9]"] ;
28 -> 29 ;
30 [label="gini = 0.0\nsamples = 18\nvalue = [18, 0]"] ;
28 -> 30 ;
31 [label="gini = 0.0\nsamples = 15\nvalue = [0, 15]"] ;
27 -> 31 ;
32 [label="PercentSalaryHike <= 8.5\ngini = 0.436\nsamples = 84\nvalue = [57, 27]"] ;
26 -> 32 ;
33 [label="gini = 0.0\nsamples = 27\nvalue = [27, 0]"] ;
32 -> 33 ;
34 [label="Age <= 27.0\ngini = 0.499\nsamples = 57\nvalue = [30, 27]"] ;
32 -> 34 ;
35 [label="gini = 0.0\nsamples = 9\nvalue = [9, 0]"] ;
34 -> 35 ;
36 [label="DistanceFromHome <= 52150.0\ngini = 0.492\nsamples = 48\nvalue = [21, 27]"] ;
34 -> 36 ;
37 [label="gini = 0.469\nsamples = 24\nvalue = [15, 9]"] ;
36 -> 37 ;
38 [label="gini = 0.375\nsamples = 24\nvalue = [6, 18]"] ;
36 -> 38 ;
39 [label="PercentSalaryHike <= 1.5\ngini = 0.375\nsamples = 24\nvalue = [6, 18]"] ;
15 -> 39 ;
40 [label="DistanceFromHome <= 108025.0\ngini = 0.444\nsamples = 9\nvalue = [6, 3]"] ;
39 -> 40 ;
41 [label="gini = 0.0\nsamples = 6\nvalue = [6, 0]"] ;
40 -> 41 ;
42 [label="gini = 0.0\nsamples = 3\nvalue = [0, 3]"] ;
40 -> 42 ;
43 [label="gini = 0.0\nsamples = 15\nvalue = [0, 15]"] ;
39 -> 43 ;
44 [label="PercentSalaryHike <= 5.0\ngini = 0.355\nsamples = 39\nvalue = [30, 9]"] ;
2 -> 44 ;
45 [label="gini = 0.0\nsamples = 21\nvalue = [21, 0]"] ;
44 -> 45 ;
46 [label="DistanceFromHome <= 161855.0\ngini = 0.5\nsamples = 18\nvalue = [9, 9]"] ;
44 -> 46 ;
47 [label="gini = 0.0\nsamples = 6\nvalue = [0, 6]"] ;
46 -> 47 ;
48 [label="Age <= 30.5\ngini = 0.375\nsamples = 12\nvalue = [9, 3]"] ;
46 -> 48 ;
49 [label="gini = 0.0\nsamples = 9\nvalue = [9, 0]"] ;
48 -> 49 ;
50 [label="gini = 0.0\nsamples = 3\nvalue = [0, 3]"] ;
48 -> 50 ;
51 [label="PercentSalaryHike <= 2.5\ngini = 0.291\nsamples = 339\nvalue = [279, 60]"] ;
1 -> 51 ;
52 [label="DistanceFromHome <= 24545.0\ngini = 0.414\nsamples = 123\nvalue = [87, 36]"] ;
51 -> 52 ;
53 [label="gini = 0.0\nsamples = 21\nvalue = [21, 0]"] ;
52 -> 53 ;
54 [label="Age <= 39.5\ngini = 0.457\nsamples = 102\nvalue = [66, 36]"] ;
52 -> 54 ;
55 [label="Age <= 36.5\ngini = 0.497\nsamples = 39\nvalue = [18, 21]"] ;
54 -> 55 ;
56 [label="MonthlyIncome <= 12.5\ngini = 0.408\nsamples = 21\nvalue = [15, 6]"] ;
55 -> 56 ;
57 [label="gini = 0.0\nsamples = 3\nvalue = [0, 3]"] ;
56 -> 57 ;
58 [label="DistanceFromHome <= 26140.0\ngini = 0.278\nsamples = 18\nvalue = [15, 3]"] ;
56 -> 58 ;
59 [label="gini = 0.0\nsamples = 3\nvalue = [0, 3]"] ;
58 -> 59 ;
60 [label="gini = 0.0\nsamples = 15\nvalue = [15, 0]"] ;
58 -> 60 ;
61 [label="DistanceFromHome <= 76330.0\ngini = 0.278\nsamples = 18\nvalue = [3, 15]"] ;
55 -> 61 ;
62 [label="gini = 0.0\nsamples = 15\nvalue = [0, 15]"] ;
61 -> 62 ;
63 [label="gini = 0.0\nsamples = 3\nvalue = [3, 0]"] ;
61 -> 63 ;
64 [label="MonthlyIncome <= 16.5\ngini = 0.363\nsamples = 63\nvalue = [48, 15]"] ;
54 -> 64 ;
65 [label="Age <= 44.5\ngini = 0.43\nsamples = 48\nvalue = [33, 15]"] ;
64 -> 65 ;
66 [label="DistanceFromHome <= 105090.0\ngini = 0.48\nsamples = 15\nvalue = [6, 9]"] ;
65 -> 66 ;
67 [label="gini = 0.0\nsamples = 9\nvalue = [0, 9]"] ;
66 -> 67 ;
68 [label="gini = 0.0\nsamples = 6\nvalue = [6, 0]"] ;
66 -> 68 ;
69 [label="DistanceFromHome <= 146145.0\ngini = 0.298\nsamples = 33\nvalue = [27, 6]"] ;
65 -> 69 ;
70 [label="DistanceFromHome <= 54485.0\ngini = 0.18\nsamples = 30\nvalue = [27, 3]"] ;
69 -> 70 ;
71 [label="DistanceFromHome <= 38280.0\ngini = 0.5\nsamples = 6\nvalue = [3, 3]"] ;
70 -> 71 ;
72 [label="gini = 0.0\nsamples = 3\nvalue = [3, 0]"] ;
71 -> 72 ;
73 [label="gini = 0.0\nsamples = 3\nvalue = [0, 3]"] ;
71 -> 73 ;
74 [label="gini = 0.0\nsamples = 24\nvalue = [24, 0]"] ;
70 -> 74 ;
75 [label="gini = 0.0\nsamples = 3\nvalue = [0, 3]"] ;
69 -> 75 ;
76 [label="gini = 0.0\nsamples = 15\nvalue = [15, 0]"] ;
64 -> 76 ;
77 [label="Age <= 57.0\ngini = 0.198\nsamples = 216\nvalue = [192, 24]"] ;
51 -> 77 ;
78 [label="DistanceFromHome <= 106980.0\ngini = 0.165\nsamples = 198\nvalue = [180, 18]"] ;
77 -> 78 ;
79 [label="MonthlyIncome <= 13.5\ngini = 0.103\nsamples = 165\nvalue = [156, 9]"] ;
78 -> 79 ;
80 [label="PercentSalaryHike <= 14.5\ngini = 0.211\nsamples = 75\nvalue = [66, 9]"] ;
79 -> 80 ;
81 [label="Age <= 36.5\ngini = 0.1\nsamples = 57\nvalue = [54, 3]"] ;
80 -> 81 ;
82 [label="Age <= 35.0\ngini = 0.32\nsamples = 15\nvalue = [12, 3]"] ;
81 -> 82 ;
83 [label="gini = 0.0\nsamples = 9\nvalue = [9, 0]"] ;
82 -> 83 ;
84 [label="PercentSalaryHike <= 7.5\ngini = 0.5\nsamples = 6\nvalue = [3, 3]"] ;
82 -> 84 ;
85 [label="gini = 0.0\nsamples = 3\nvalue = [0, 3]"] ;
84 -> 85 ;
86 [label="gini = 0.0\nsamples = 3\nvalue = [3, 0]"] ;
84 -> 86 ;
87 [label="gini = 0.0\nsamples = 42\nvalue = [42, 0]"] ;
81 -> 87 ;
88 [label="PercentSalaryHike <= 19.5\ngini = 0.444\nsamples = 18\nvalue = [12, 6]"] ;
80 -> 88 ;
89 [label="DistanceFromHome <= 34145.0\ngini = 0.444\nsamples = 9\nvalue = [3, 6]"] ;
88 -> 89 ;
90 [label="gini = 0.0\nsamples = 3\nvalue = [3, 0]"] ;
89 -> 90 ;
91 [label="gini = 0.0\nsamples = 6\nvalue = [0, 6]"] ;
89 -> 91 ;
92 [label="gini = 0.0\nsamples = 9\nvalue = [9, 0]"] ;
88 -> 92 ;
93 [label="gini = 0.0\nsamples = 90\nvalue = [90, 0]"] ;
79 -> 93 ;
94 [label="MonthlyIncome <= 14.5\ngini = 0.397\nsamples = 33\nvalue = [24, 9]"] ;
78 -> 94 ;
95 [label="gini = 0.0\nsamples = 15\nvalue = [15, 0]"] ;
94 -> 95 ;
96 [label="PercentSalaryHike <= 5.5\ngini = 0.5\nsamples = 18\nvalue = [9, 9]"] ;
94 -> 96 ;
97 [label="gini = 0.0\nsamples = 3\nvalue = [3, 0]"] ;
96 -> 97 ;
98 [label="MonthlyIncome <= 16.5\ngini = 0.48\nsamples = 15\nvalue = [6, 9]"] ;
96 -> 98 ;
99 [label="gini = 0.0\nsamples = 6\nvalue = [0, 6]"] ;
98 -> 99 ;
100 [label="MonthlyIncome <= 17.5\ngini = 0.444\nsamples = 9\nvalue = [6, 3]"] ;
98 -> 100 ;
101 [label="gini = 0.0\nsamples = 3\nvalue = [3, 0]"] ;
100 -> 101 ;
102 [label="DistanceFromHome <= 169085.0\ngini = 0.5\nsamples = 6\nvalue = [3, 3]"] ;
100 -> 102 ;
103 [label="gini = 0.0\nsamples = 3\nvalue = [0, 3]"] ;
102 -> 103 ;
104 [label="gini = 0.0\nsamples = 3\nvalue = [3, 0]"] ;
102 -> 104 ;
105 [label="PercentSalaryHike <= 7.0\ngini = 0.444\nsamples = 18\nvalue = [12, 6]"] ;
77 -> 105 ;
106 [label="gini = 0.0\nsamples = 9\nvalue = [9, 0]"] ;
105 -> 106 ;
107 [label="PercentSalaryHike <= 13.0\ngini = 0.444\nsamples = 9\nvalue = [3, 6]"] ;
105 -> 107 ;
108 [label="gini = 0.0\nsamples = 6\nvalue = [0, 6]"] ;
107 -> 108 ;
109 [label="gini = 0.0\nsamples = 3\nvalue = [3, 0]"] ;
107 -> 109 ;
110 [label="Age <= 33.5\ngini = 0.225\nsamples = 3765\nvalue = [3279, 486]"] ;
0 -> 110 [labeldistance=2.5, labelangle=-45, headlabel="False"] ;
111 [label="YearsAtCompany <= 3.5\ngini = 0.298\nsamples = 1416\nvalue = [1158, 258]"] ;
110 -> 111 ;
112 [label="PercentSalaryHike <= 7.5\ngini = 0.397\nsamples = 384\nvalue = [279, 105]"] ;
111 -> 112 ;
113 [label="DistanceFromHome <= 73705.0\ngini = 0.292\nsamples = 186\nvalue = [153, 33]"] ;
112 -> 113 ;
114 [label="DistanceFromHome <= 59150.0\ngini = 0.353\nsamples = 144\nvalue = [111, 33]"] ;
113 -> 114 ;
115 [label="MonthlyIncome <= 13.5\ngini = 0.273\nsamples = 129\nvalue = [108, 21]"] ;
114 -> 115 ;
116 [label="YearsAtCompany <= 2.5\ngini = 0.401\nsamples = 54\nvalue = [39, 15]"] ;
115 -> 116 ;
117 [label="MonthlyIncome <= 12.5\ngini = 0.494\nsamples = 27\nvalue = [12, 15]"] ;
116 -> 117 ;
118 [label="DistanceFromHome <= 46380.0\ngini = 0.444\nsamples = 18\nvalue = [12, 6]"] ;
117 -> 118 ;
119 [label="gini = 0.32\nsamples = 15\nvalue = [12, 3]"] ;
118 -> 119 ;
120 [label="gini = 0.0\nsamples = 3\nvalue = [0, 3]"] ;
118 -> 120 ;
121 [label="gini = 0.0\nsamples = 9\nvalue = [0, 9]"] ;
117 -> 121 ;
122 [label="gini = 0.0\nsamples = 27\nvalue = [27, 0]"] ;
116 -> 122 ;
123 [label="DistanceFromHome <= 48050.0\ngini = 0.147\nsamples = 75\nvalue = [69, 6]"] ;
115 -> 123 ;
124 [label="DistanceFromHome <= 23550.0\ngini = 0.091\nsamples = 63\nvalue = [60, 3]"] ;
123 -> 124 ;
125 [label="MonthlyIncome <= 19.5\ngini = 0.32\nsamples = 15\nvalue = [12, 3]"] ;
124 -> 125 ;
126 [label="gini = 0.0\nsamples = 12\nvalue = [12, 0]"] ;
125 -> 126 ;
127 [label="gini = 0.0\nsamples = 3\nvalue = [0, 3]"] ;
125 -> 127 ;
128 [label="gini = 0.0\nsamples = 48\nvalue = [48, 0]"] ;
124 -> 128 ;
129 [label="Age <= 27.0\ngini = 0.375\nsamples = 12\nvalue = [9, 3]"] ;
123 -> 129 ;
130 [label="gini = 0.0\nsamples = 3\nvalue = [0, 3]"] ;
129 -> 130 ;
131 [label="gini = 0.0\nsamples = 9\nvalue = [9, 0]"] ;
129 -> 131 ;
132 [label="PercentSalaryHike <= 2.0\ngini = 0.32\nsamples = 15\nvalue = [3, 12]"] ;
114 -> 132 ;
133 [label="gini = 0.0\nsamples = 3\nvalue = [3, 0]"] ;
132 -> 133 ;
134 [label="gini = 0.0\nsamples = 12\nvalue = [0, 12]"] ;
132 -> 134 ;
135 [label="gini = 0.0\nsamples = 42\nvalue = [42, 0]"] ;
113 -> 135 ;
136 [label="DistanceFromHome <= 115880.0\ngini = 0.463\nsamples = 198\nvalue = [126, 72]"] ;
112 -> 136 ;
137 [label="DistanceFromHome <= 34745.0\ngini = 0.431\nsamples = 162\nvalue = [111, 51]"] ;
136 -> 137 ;
138 [label="YearsAtCompany <= 2.5\ngini = 0.491\nsamples = 69\nvalue = [39, 30]"] ;
137 -> 138 ;
139 [label="PercentSalaryHike <= 19.5\ngini = 0.498\nsamples = 45\nvalue = [21, 24]"] ;
138 -> 139 ;
140 [label="Age <= 30.0\ngini = 0.397\nsamples = 33\nvalue = [9, 24]"] ;
139 -> 140 ;
141 [label="Age <= 23.0\ngini = 0.219\nsamples = 24\nvalue = [3, 21]"] ;
140 -> 141 ;
142 [label="gini = 0.5\nsamples = 6\nvalue = [3, 3]"] ;
141 -> 142 ;
143 [label="gini = 0.0\nsamples = 18\nvalue = [0, 18]"] ;
141 -> 143 ;
144 [label="PercentSalaryHike <= 8.5\ngini = 0.444\nsamples = 9\nvalue = [6, 3]"] ;
140 -> 144 ;
145 [label="gini = 0.0\nsamples = 3\nvalue = [0, 3]"] ;
144 -> 145 ;
146 [label="gini = 0.0\nsamples = 6\nvalue = [6, 0]"] ;
144 -> 146 ;
147 [label="gini = 0.0\nsamples = 12\nvalue = [12, 0]"] ;
139 -> 147 ;
148 [label="PercentSalaryHike <= 20.5\ngini = 0.375\nsamples = 24\nvalue = [18, 6]"] ;
138 -> 148 ;
149 [label="gini = 0.0\nsamples = 18\nvalue = [18, 0]"] ;
148 -> 149 ;
150 [label="gini = 0.0\nsamples = 6\nvalue = [0, 6]"] ;
148 -> 150 ;
151 [label="MonthlyIncome <= 13.5\ngini = 0.35\nsamples = 93\nvalue = [72, 21]"] ;
137 -> 151 ;
152 [label="DistanceFromHome <= 90610.0\ngini = 0.133\nsamples = 42\nvalue = [39, 3]"] ;
151 -> 152 ;
153 [label="gini = 0.0\nsamples = 33\nvalue = [33, 0]"] ;
152 -> 153 ;
154 [label="Age <= 22.5\ngini = 0.444\nsamples = 9\nvalue = [6, 3]"] ;
152 -> 154 ;
155 [label="gini = 0.0\nsamples = 3\nvalue = [0, 3]"] ;
154 -> 155 ;
156 [label="gini = 0.0\nsamples = 6\nvalue = [6, 0]"] ;
154 -> 156 ;
157 [label="DistanceFromHome <= 87460.0\ngini = 0.457\nsamples = 51\nvalue = [33, 18]"] ;
151 -> 157 ;
158 [label="DistanceFromHome <= 40515.0\ngini = 0.497\nsamples = 39\nvalue = [21, 18]"] ;
157 -> 158 ;
159 [label="gini = 0.0\nsamples = 9\nvalue = [9, 0]"] ;
158 -> 159 ;
160 [label="MonthlyIncome <= 18.0\ngini = 0.48\nsamples = 30\nvalue = [12, 18]"] ;
158 -> 160 ;
161 [label="gini = 0.278\nsamples = 18\nvalue = [3, 15]"] ;
160 -> 161 ;
162 [label="gini = 0.375\nsamples = 12\nvalue = [9, 3]"] ;
160 -> 162 ;
163 [label="gini = 0.0\nsamples = 12\nvalue = [12, 0]"] ;
157 -> 163 ;
164 [label="MonthlyIncome <= 19.5\ngini = 0.486\nsamples = 36\nvalue = [15, 21]"] ;
136 -> 164 ;
165 [label="PercentSalaryHike <= 22.0\ngini = 0.42\nsamples = 30\nvalue = [9, 21]"] ;
164 -> 165 ;
166 [label="DistanceFromHome <= 192815.0\ngini = 0.245\nsamples = 21\nvalue = [3, 18]"] ;
165 -> 166 ;
167 [label="gini = 0.0\nsamples = 15\nvalue = [0, 15]"] ;
166 -> 167 ;
168 [label="PercentSalaryHike <= 13.0\ngini = 0.5\nsamples = 6\nvalue = [3, 3]"] ;
166 -> 168 ;
169 [label="gini = 0.0\nsamples = 3\nvalue = [3, 0]"] ;
168 -> 169 ;
170 [label="gini = 0.0\nsamples = 3\nvalue = [0, 3]"] ;
168 -> 170 ;
171 [label="DistanceFromHome <= 180585.0\ngini = 0.444\nsamples = 9\nvalue = [6, 3]"] ;
165 -> 171 ;
172 [label="gini = 0.0\nsamples = 3\nvalue = [3, 0]"] ;
171 -> 172 ;
173 [label="MonthlyIncome <= 14.0\ngini = 0.5\nsamples = 6\nvalue = [3, 3]"] ;
171 -> 173 ;
174 [label="gini = 0.0\nsamples = 3\nvalue = [3, 0]"] ;
173 -> 174 ;
175 [label="gini = 0.0\nsamples = 3\nvalue = [0, 3]"] ;
173 -> 175 ;
176 [label="gini = 0.0\nsamples = 6\nvalue = [6, 0]"] ;
164 -> 176 ;
177 [label="PercentSalaryHike <= 26.5\ngini = 0.253\nsamples = 1032\nvalue = [879, 153]"] ;
111 -> 177 ;
178 [label="PercentSalaryHike <= 15.5\ngini = 0.237\nsamples = 981\nvalue = [846, 135]"] ;
177 -> 178 ;
179 [label="MonthlyIncome <= 11.5\ngini = 0.261\nsamples = 816\nvalue = [690, 126]"] ;
178 -> 179 ;
180 [label="PercentSalaryHike <= 14.5\ngini = 0.13\nsamples = 129\nvalue = [120, 9]"] ;
179 -> 180 ;
181 [label="YearsAtCompany <= 13.5\ngini = 0.091\nsamples = 126\nvalue = [120, 6]"] ;
180 -> 181 ;
182 [label="Age <= 32.5\ngini = 0.049\nsamples = 120\nvalue = [117, 3]"] ;
181 -> 182 ;
183 [label="gini = 0.0\nsamples = 105\nvalue = [105, 0]"] ;
182 -> 183 ;
184 [label="DistanceFromHome <= 49675.0\ngini = 0.32\nsamples = 15\nvalue = [12, 3]"] ;
182 -> 184 ;
185 [label="gini = 0.0\nsamples = 12\nvalue = [12, 0]"] ;
184 -> 185 ;
186 [label="gini = 0.0\nsamples = 3\nvalue = [0, 3]"] ;
184 -> 186 ;
187 [label="DistanceFromHome <= 66010.0\ngini = 0.5\nsamples = 6\nvalue = [3, 3]"] ;
181 -> 187 ;
188 [label="gini = 0.0\nsamples = 3\nvalue = [0, 3]"] ;
187 -> 188 ;
189 [label="gini = 0.0\nsamples = 3\nvalue = [3, 0]"] ;
187 -> 189 ;
190 [label="gini = 0.0\nsamples = 3\nvalue = [0, 3]"] ;
180 -> 190 ;
191 [label="YearsAtCompany <= 4.5\ngini = 0.283\nsamples = 687\nvalue = [570, 117]"] ;
179 -> 191 ;
192 [label="DistanceFromHome <= 23915.0\ngini = 0.417\nsamples = 81\nvalue = [57, 24]"] ;
191 -> 192 ;
193 [label="gini = 0.0\nsamples = 6\nvalue = [0, 6]"] ;
192 -> 193 ;
194 [label="DistanceFromHome <= 97380.0\ngini = 0.365\nsamples = 75\nvalue = [57, 18]"] ;
192 -> 194 ;
195 [label="MonthlyIncome <= 23.5\ngini = 0.245\nsamples = 63\nvalue = [54, 9]"] ;
194 -> 195 ;
196 [label="gini = 0.18\nsamples = 60\nvalue = [54, 6]"] ;
195 -> 196 ;
197 [label="gini = 0.0\nsamples = 3\nvalue = [0, 3]"] ;
195 -> 197 ;
198 [label="MonthlyIncome <= 12.5\ngini = 0.375\nsamples = 12\nvalue = [3, 9]"] ;
194 -> 198 ;
199 [label="gini = 0.0\nsamples = 3\nvalue = [3, 0]"] ;
198 -> 199 ;
200 [label="gini = 0.0\nsamples = 9\nvalue = [0, 9]"] ;
198 -> 200 ;
201 [label="Age <= 23.5\ngini = 0.26\nsamples = 606\nvalue = [513, 93]"] ;
191 -> 201 ;
202 [label="gini = 0.0\nsamples = 3\nvalue = [0, 3]"] ;
201 -> 202 ;
203 [label="PercentSalaryHike <= 9.5\ngini = 0.254\nsamples = 603\nvalue = [513, 90]"] ;
201 -> 203 ;
204 [label="PercentSalaryHike <= 6.5\ngini = 0.227\nsamples = 483\nvalue = [420, 63]"] ;
203 -> 204 ;
205 [label="gini = 0.283\nsamples = 351\nvalue = [291, 60]"] ;
204 -> 205 ;
206 [label="gini = 0.044\nsamples = 132\nvalue = [129, 3]"] ;
204 -> 206 ;
207 [label="DistanceFromHome <= 18710.0\ngini = 0.349\nsamples = 120\nvalue = [93, 27]"] ;
203 -> 207 ;
208 [label="gini = 0.0\nsamples = 3\nvalue = [0, 3]"] ;
207 -> 208 ;
209 [label="gini = 0.326\nsamples = 117\nvalue = [93, 24]"] ;
207 -> 209 ;
210 [label="DistanceFromHome <= 20570.0\ngini = 0.103\nsamples = 165\nvalue = [156, 9]"] ;
178 -> 210 ;
211 [label="MonthlyIncome <= 17.0\ngini = 0.5\nsamples = 6\nvalue = [3, 3]"] ;
210 -> 211 ;
212 [label="gini = 0.0\nsamples = 3\nvalue = [3, 0]"] ;
211 -> 212 ;
213 [label="gini = 0.0\nsamples = 3\nvalue = [0, 3]"] ;
211 -> 213 ;
214 [label="Age <= 25.5\ngini = 0.073\nsamples = 159\nvalue = [153, 6]"] ;
210 -> 214 ;
215 [label="YearsAtCompany <= 5.5\ngini = 0.32\nsamples = 15\nvalue = [12, 3]"] ;
214 -> 215 ;
216 [label="gini = 0.0\nsamples = 12\nvalue = [12, 0]"] ;
215 -> 216 ;
217 [label="gini = 0.0\nsamples = 3\nvalue = [0, 3]"] ;
215 -> 217 ;
218 [label="YearsAtCompany <= 9.5\ngini = 0.041\nsamples = 144\nvalue = [141, 3]"] ;
214 -> 218 ;
219 [label="gini = 0.0\nsamples = 105\nvalue = [105, 0]"] ;
218 -> 219 ;
220 [label="Age <= 28.5\ngini = 0.142\nsamples = 39\nvalue = [36, 3]"] ;
218 -> 220 ;
221 [label="gini = 0.0\nsamples = 3\nvalue = [0, 3]"] ;
220 -> 221 ;
222 [label="gini = 0.0\nsamples = 36\nvalue = [36, 0]"] ;
220 -> 222 ;
223 [label="YearsAtCompany <= 7.5\ngini = 0.457\nsamples = 51\nvalue = [33, 18]"] ;
177 -> 223 ;
224 [label="DistanceFromHome <= 46375.0\ngini = 0.48\nsamples = 30\nvalue = [12, 18]"] ;
223 -> 224 ;
225 [label="gini = 0.0\nsamples = 15\nvalue = [0, 15]"] ;
224 -> 225 ;
226 [label="PercentSalaryHike <= 27.5\ngini = 0.32\nsamples = 15\nvalue = [12, 3]"] ;
224 -> 226 ;
227 [label="gini = 0.0\nsamples = 3\nvalue = [0, 3]"] ;
226 -> 227 ;
228 [label="gini = 0.0\nsamples = 12\nvalue = [12, 0]"] ;
226 -> 228 ;
229 [label="gini = 0.0\nsamples = 21\nvalue = [21, 0]"] ;
223 -> 229 ;
230 [label="DistanceFromHome <= 10300.0\ngini = 0.175\nsamples = 2349\nvalue = [2121, 228]"] ;
110 -> 230 ;
231 [label="gini = 0.0\nsamples = 3\nvalue = [0, 3]"] ;
230 -> 231 ;
232 [label="YearsAtCompany <= 38.5\ngini = 0.173\nsamples = 2346\nvalue = [2121, 225]"] ;
230 -> 232 ;
233 [label="PercentSalaryHike <= 3.5\ngini = 0.172\nsamples = 2343\nvalue = [2121, 222]"] ;
232 -> 233 ;
234 [label="MonthlyIncome <= 18.5\ngini = 0.11\nsamples = 771\nvalue = [726, 45]"] ;
233 -> 234 ;
235 [label="YearsAtCompany <= 16.5\ngini = 0.08\nsamples = 645\nvalue = [618, 27]"] ;
234 -> 235 ;
236 [label="Age <= 36.5\ngini = 0.055\nsamples = 534\nvalue = [519, 15]"] ;
235 -> 236 ;
237 [label="DistanceFromHome <= 73570.0\ngini = 0.124\nsamples = 135\nvalue = [126, 9]"] ;
236 -> 237 ;
238 [label="DistanceFromHome <= 67210.0\ngini = 0.191\nsamples = 84\nvalue = [75, 9]"] ;
237 -> 238 ;
239 [label="gini = 0.137\nsamples = 81\nvalue = [75, 6]"] ;
238 -> 239 ;
240 [label="gini = 0.0\nsamples = 3\nvalue = [0, 3]"] ;
238 -> 240 ;
241 [label="gini = 0.0\nsamples = 51\nvalue = [51, 0]"] ;
237 -> 241 ;
242 [label="DistanceFromHome <= 47700.0\ngini = 0.03\nsamples = 399\nvalue = [393, 6]"] ;
236 -> 242 ;
243 [label="gini = 0.0\nsamples = 183\nvalue = [183, 0]"] ;
242 -> 243 ;
244 [label="DistanceFromHome <= 47770.0\ngini = 0.054\nsamples = 216\nvalue = [210, 6]"] ;
242 -> 244 ;
245 [label="gini = 0.0\nsamples = 3\nvalue = [0, 3]"] ;
244 -> 245 ;
246 [label="gini = 0.028\nsamples = 213\nvalue = [210, 3]"] ;
244 -> 246 ;
247 [label="Age <= 39.5\ngini = 0.193\nsamples = 111\nvalue = [99, 12]"] ;
235 -> 247 ;
248 [label="DistanceFromHome <= 37985.0\ngini = 0.5\nsamples = 12\nvalue = [6, 6]"] ;
247 -> 248 ;
249 [label="gini = 0.0\nsamples = 3\nvalue = [3, 0]"] ;
248 -> 249 ;
250 [label="DistanceFromHome <= 76805.0\ngini = 0.444\nsamples = 9\nvalue = [3, 6]"] ;
248 -> 250 ;
251 [label="gini = 0.0\nsamples = 6\nvalue = [0, 6]"] ;
250 -> 251 ;
252 [label="gini = 0.0\nsamples = 3\nvalue = [3, 0]"] ;
250 -> 252 ;
253 [label="DistanceFromHome <= 22910.0\ngini = 0.114\nsamples = 99\nvalue = [93, 6]"] ;
247 -> 253 ;
254 [label="Age <= 41.0\ngini = 0.5\nsamples = 6\nvalue = [3, 3]"] ;
253 -> 254 ;
255 [label="gini = 0.0\nsamples = 3\nvalue = [3, 0]"] ;
254 -> 255 ;
256 [label="gini = 0.0\nsamples = 3\nvalue = [0, 3]"] ;
254 -> 256 ;
257 [label="DistanceFromHome <= 195720.0\ngini = 0.062\nsamples = 93\nvalue = [90, 3]"] ;
253 -> 257 ;
258 [label="gini = 0.0\nsamples = 87\nvalue = [87, 0]"] ;
257 -> 258 ;
259 [label="gini = 0.5\nsamples = 6\nvalue = [3, 3]"] ;
257 -> 259 ;
260 [label="YearsAtCompany <= 2.5\ngini = 0.245\nsamples = 126\nvalue = [108, 18]"] ;
234 -> 260 ;
261 [label="gini = 0.0\nsamples = 3\nvalue = [0, 3]"] ;
260 -> 261 ;
262 [label="Age <= 51.5\ngini = 0.214\nsamples = 123\nvalue = [108, 15]"] ;
260 -> 262 ;
263 [label="DistanceFromHome <= 47930.0\ngini = 0.153\nsamples = 108\nvalue = [99, 9]"] ;
262 -> 263 ;
264 [label="gini = 0.0\nsamples = 57\nvalue = [57, 0]"] ;
263 -> 264 ;
265 [label="DistanceFromHome <= 53380.0\ngini = 0.291\nsamples = 51\nvalue = [42, 9]"] ;
263 -> 265 ;
266 [label="gini = 0.0\nsamples = 3\nvalue = [0, 3]"] ;
265 -> 266 ;
267 [label="gini = 0.219\nsamples = 48\nvalue = [42, 6]"] ;
265 -> 267 ;
268 [label="DistanceFromHome <= 26005.0\ngini = 0.48\nsamples = 15\nvalue = [9, 6]"] ;
262 -> 268 ;
269 [label="gini = 0.0\nsamples = 6\nvalue = [0, 6]"] ;
268 -> 269 ;
270 [label="gini = 0.0\nsamples = 9\nvalue = [9, 0]"] ;
268 -> 270 ;
271 [label="PercentSalaryHike <= 24.5\ngini = 0.2\nsamples = 1572\nvalue = [1395, 177]"] ;
233 -> 271 ;
272 [label="MonthlyIncome <= 24.5\ngini = 0.221\nsamples = 1374\nvalue = [1200, 174]"] ;
271 -> 272 ;
273 [label="DistanceFromHome <= 20060.0\ngini = 0.214\nsamples = 1353\nvalue = [1188, 165]"] ;
272 -> 273 ;
274 [label="Age <= 49.5\ngini = 0.426\nsamples = 39\nvalue = [27, 12]"] ;
273 -> 274 ;
275 [label="DistanceFromHome <= 18030.0\ngini = 0.298\nsamples = 33\nvalue = [27, 6]"] ;
274 -> 275 ;
276 [label="gini = 0.0\nsamples = 27\nvalue = [27, 0]"] ;
275 -> 276 ;
277 [label="gini = 0.0\nsamples = 6\nvalue = [0, 6]"] ;
275 -> 277 ;
278 [label="gini = 0.0\nsamples = 6\nvalue = [0, 6]"] ;
274 -> 278 ;
279 [label="DistanceFromHome <= 63480.0\ngini = 0.206\nsamples = 1314\nvalue = [1161, 153]"] ;
273 -> 279 ;
280 [label="DistanceFromHome <= 62460.0\ngini = 0.237\nsamples = 852\nvalue = [735, 117]"] ;
279 -> 280 ;
281 [label="gini = 0.222\nsamples = 825\nvalue = [720, 105]"] ;
280 -> 281 ;
282 [label="gini = 0.494\nsamples = 27\nvalue = [15, 12]"] ;
280 -> 282 ;
283 [label="Age <= 48.5\ngini = 0.144\nsamples = 462\nvalue = [426, 36]"] ;
279 -> 283 ;
284 [label="gini = 0.105\nsamples = 378\nvalue = [357, 21]"] ;
283 -> 284 ;
285 [label="gini = 0.293\nsamples = 84\nvalue = [69, 15]"] ;
283 -> 285 ;
286 [label="DistanceFromHome <= 61760.0\ngini = 0.49\nsamples = 21\nvalue = [12, 9]"] ;
272 -> 286 ;
287 [label="DistanceFromHome <= 24405.0\ngini = 0.48\nsamples = 15\nvalue = [6, 9]"] ;
286 -> 287 ;
288 [label="gini = 0.0\nsamples = 3\nvalue = [3, 0]"] ;
287 -> 288 ;
289 [label="DistanceFromHome <= 29860.0\ngini = 0.375\nsamples = 12\nvalue = [3, 9]"] ;
287 -> 289 ;
290 [label="gini = 0.0\nsamples = 6\nvalue = [0, 6]"] ;
289 -> 290 ;
291 [label="gini = 0.5\nsamples = 6\nvalue = [3, 3]"] ;
289 -> 291 ;
292 [label="gini = 0.0\nsamples = 6\nvalue = [6, 0]"] ;
286 -> 292 ;
293 [label="Age <= 34.5\ngini = 0.03\nsamples = 198\nvalue = [195, 3]"] ;
271 -> 293 ;
294 [label="DistanceFromHome <= 39430.0\ngini = 0.18\nsamples = 30\nvalue = [27, 3]"] ;
293 -> 294 ;
295 [label="YearsAtCompany <= 6.5\ngini = 0.5\nsamples = 6\nvalue = [3, 3]"] ;
294 -> 295 ;
296 [label="gini = 0.0\nsamples = 3\nvalue = [0, 3]"] ;
295 -> 296 ;
297 [label="gini = 0.0\nsamples = 3\nvalue = [3, 0]"] ;
295 -> 297 ;
298 [label="gini = 0.0\nsamples = 24\nvalue = [24, 0]"] ;
294 -> 298 ;
299 [label="gini = 0.0\nsamples = 168\nvalue = [168, 0]"] ;
293 -> 299 ;
300 [label="gini = 0.0\nsamples = 3\nvalue = [0, 3]"] ;
232 -> 300 ;
}